<?xml version="1.0"?>
<opencv_storage>
<stage9>
  <maxWeakCount>6</maxWeakCount>
  <stageThreshold>-1.5014661550521851e+00</stageThreshold>
  <weakClassifiers>
    <_>
      <internalNodes>
        0 -1 121522 2.8998920693993568e-02</internalNodes>
      <leafValues>
        -8.5462552309036255e-01 -8.9655175805091858e-02</leafValues></_>
    <_>
      <internalNodes>
        0 -1 150981 -1.3912648682889994e-05</internalNodes>
      <leafValues>
        2.1994888782501221e-01 -6.3067656755447388e-01</leafValues></_>
    <_>
      <internalNodes>
        0 -1 76431 9.6563051920384169e-04</internalNodes>
      <leafValues>
        2.4863678216934204e-01 -7.8869175910949707e-01</leafValues></_>
    <_>
      <internalNodes>
        0 -1 125180 5.2965516224503517e-03</internalNodes>
      <leafValues>
        2.0149186253547668e-01 -1.</leafValues></_>
    <_>
      <internalNodes>
        0 -1 125487 -4.0113022550940514e-03</internalNodes>
      <leafValues>
        -8.2608878612518311e-01 2.3420323431491852e-01</leafValues></_>
    <_>
      <internalNodes>
        0 -1 119595 -1.3634878996526822e-05</internalNodes>
      <leafValues>
        3.7132120132446289e-01 -4.9082931876182556e-01</leafValues></_></weakClassifiers></stage9>
</opencv_storage>
