<?xml version="1.0"?>
<opencv_storage>
<stage2>
  <maxWeakCount>5</maxWeakCount>
  <stageThreshold>-1.7363485097885132e+00</stageThreshold>
  <weakClassifiers>
    <_>
      <internalNodes>
        0 -1 72942 2.9326748102903366e-02</internalNodes>
      <leafValues>
        -8.2080924510955811e-01 3.1250000000000000e-01</leafValues></_>
    <_>
      <internalNodes>
        0 -1 48630 6.5697014331817627e-02</internalNodes>
      <leafValues>
        -8.3022695779800415e-01 2.1372237801551819e-01</leafValues></_>
    <_>
      <internalNodes>
        0 -1 26803 3.8343271613121033e-01</internalNodes>
      <leafValues>
        -6.6769880056381226e-01 5.0961589813232422e-01</leafValues></_>
    <_>
      <internalNodes>
        0 -1 635 2.6419323682785034e-01</internalNodes>
      <leafValues>
        -9.8371845483779907e-01 2.6621288061141968e-01</leafValues></_>
    <_>
      <internalNodes>
        0 -1 85964 8.7366364896297455e-03</internalNodes>
      <leafValues>
        3.1617367267608643e-01 -9.1981047391891479e-01</leafValues></_></weakClassifiers></stage2>
</opencv_storage>
