<?xml version="1.0"?>
<opencv_storage>
<stage7>
  <maxWeakCount>6</maxWeakCount>
  <stageThreshold>-1.5898524522781372e+00</stageThreshold>
  <weakClassifiers>
    <_>
      <internalNodes>
        0 -1 71390 1.3122591376304626e-01</internalNodes>
      <leafValues>
        -8.5921788215637207e-01 -1.0891088843345642e-01</leafValues></_>
    <_>
      <internalNodes>
        0 -1 113804 1.3571197996498086e-05</internalNodes>
      <leafValues>
        -6.3610291481018066e-01 2.2346562147140503e-01</leafValues></_>
    <_>
      <internalNodes>
        0 -1 1117 3.6785978591069579e-04</internalNodes>
      <leafValues>
        2.6960343122482300e-01 -6.8956840038299561e-01</leafValues></_>
    <_>
      <internalNodes>
        0 -1 39321 3.2393217086791992e-02</internalNodes>
      <leafValues>
        -5.8881986141204834e-01 3.8414520025253296e-01</leafValues></_>
    <_>
      <internalNodes>
        0 -1 77109 9.1642290353775024e-02</internalNodes>
      <leafValues>
        -8.6402368545532227e-01 2.7316439151763916e-01</leafValues></_>
    <_>
      <internalNodes>
        0 -1 20524 3.3201411366462708e-02</internalNodes>
      <leafValues>
        -9.0804815292358398e-01 2.1843680739402771e-01</leafValues></_></weakClassifiers></stage7>
</opencv_storage>
