<?xml version="1.0"?>
<opencv_storage>
<stage15>
  <maxWeakCount>8</maxWeakCount>
  <stageThreshold>-1.7294837236404419e+00</stageThreshold>
  <weakClassifiers>
    <_>
      <internalNodes>
        0 -1 49915 -1.6565268742851913e-04</internalNodes>
      <leafValues>
        -4.3262410163879395e-01 -8.8012617826461792e-01</leafValues></_>
    <_>
      <internalNodes>
        0 -1 85628 1.0336907871533185e-04</internalNodes>
      <leafValues>
        -7.9962897300720215e-01 2.4478347972035408e-02</leafValues></_>
    <_>
      <internalNodes>
        0 -1 126937 1.5613342839060351e-05</internalNodes>
      <leafValues>
        -4.8136228322982788e-01 2.8724741935729980e-01</leafValues></_>
    <_>
      <internalNodes>
        0 -1 27519 6.9416776299476624e-02</internalNodes>
      <leafValues>
        2.9885995388031006e-01 -5.9739714860916138e-01</leafValues></_>
    <_>
      <internalNodes>
        0 -1 301 1.8563825637102127e-02</internalNodes>
      <leafValues>
        -8.1339573860168457e-01 1.9065302610397339e-01</leafValues></_>
    <_>
      <internalNodes>
        0 -1 6954 -2.3877635598182678e-02</internalNodes>
      <leafValues>
        -1. 1.1450188606977463e-01</leafValues></_>
    <_>
      <internalNodes>
        0 -1 133836 -5.7796842884272337e-04</internalNodes>
      <leafValues>
        -6.9756430387496948e-01 1.9495312869548798e-01</leafValues></_>
    <_>
      <internalNodes>
        0 -1 144029 1.3416801266430411e-05</internalNodes>
      <leafValues>
        -3.6733433604240417e-01 4.5159769058227539e-01</leafValues></_></weakClassifiers></stage15>
</opencv_storage>
